digraph Tree {
node [shape=box, style="filled, rounded", color="black", fontname=helvetica] ;
edge [fontname=helvetica] ;
0 [label=<Game_Location &le; 0.5<br/>gini = 0.444<br/>samples = 36<br/>value = [12, 24]<br/>class = W>, fillcolor="#399de57f"] ;
1 [label=<Training_Impulse &le; 555.5<br/>gini = 0.255<br/>samples = 20<br/>value = [3, 17]<br/>class = W>, fillcolor="#399de5d2"] ;
0 -> 1 [labeldistance=2.5, labelangle=45, headlabel="True"] ;
2 [label=<Training_Impulse &le; 417.0<br/>gini = 0.42<br/>samples = 10<br/>value = [3, 7]<br/>class = W>, fillcolor="#399de592"] ;
1 -> 2 ;
3 [label=<gini = 0.0<br/>samples = 5<br/>value = [0, 5]<br/>class = W>, fillcolor="#399de5ff"] ;
2 -> 3 ;
4 [label=<Training_Impulse &le; 464.5<br/>gini = 0.48<br/>samples = 5<br/>value = [3, 2]<br/>class = L>, fillcolor="#e5813955"] ;
2 -> 4 ;
5 [label=<gini = 0.0<br/>samples = 1<br/>value = [1, 0]<br/>class = L>, fillcolor="#e58139ff"] ;
4 -> 5 ;
6 [label=<Training_Impulse &le; 484.0<br/>gini = 0.5<br/>samples = 4<br/>value = [2, 2]<br/>class = L>, fillcolor="#e5813900"] ;
4 -> 6 ;
7 [label=<gini = 0.0<br/>samples = 1<br/>value = [0, 1]<br/>class = W>, fillcolor="#399de5ff"] ;
6 -> 7 ;
8 [label=<Training_Impulse &le; 521.5<br/>gini = 0.444<br/>samples = 3<br/>value = [2, 1]<br/>class = L>, fillcolor="#e581397f"] ;
6 -> 8 ;
9 [label=<gini = 0.0<br/>samples = 1<br/>value = [1, 0]<br/>class = L>, fillcolor="#e58139ff"] ;
8 -> 9 ;
10 [label=<Training_Impulse &le; 547.0<br/>gini = 0.5<br/>samples = 2<br/>value = [1, 1]<br/>class = L>, fillcolor="#e5813900"] ;
8 -> 10 ;
11 [label=<gini = 0.0<br/>samples = 1<br/>value = [0, 1]<br/>class = W>, fillcolor="#399de5ff"] ;
10 -> 11 ;
12 [label=<gini = 0.0<br/>samples = 1<br/>value = [1, 0]<br/>class = L>, fillcolor="#e58139ff"] ;
10 -> 12 ;
13 [label=<gini = 0.0<br/>samples = 10<br/>value = [0, 10]<br/>class = W>, fillcolor="#399de5ff"] ;
1 -> 13 ;
14 [label=<Training_Impulse &le; 520.0<br/>gini = 0.492<br/>samples = 16<br/>value = [9, 7]<br/>class = L>, fillcolor="#e5813939"] ;
0 -> 14 [labeldistance=2.5, labelangle=-45, headlabel="False"] ;
15 [label=<Training_Impulse &le; 50.0<br/>gini = 0.497<br/>samples = 13<br/>value = [6, 7]<br/>class = W>, fillcolor="#399de524"] ;
14 -> 15 ;
16 [label=<gini = 0.0<br/>samples = 2<br/>value = [2, 0]<br/>class = L>, fillcolor="#e58139ff"] ;
15 -> 16 ;
17 [label=<Training_Impulse &le; 367.0<br/>gini = 0.463<br/>samples = 11<br/>value = [4, 7]<br/>class = W>, fillcolor="#399de56d"] ;
15 -> 17 ;
18 [label=<gini = 0.0<br/>samples = 3<br/>value = [0, 3]<br/>class = W>, fillcolor="#399de5ff"] ;
17 -> 18 ;
19 [label=<Training_Impulse &le; 387.5<br/>gini = 0.5<br/>samples = 8<br/>value = [4, 4]<br/>class = L>, fillcolor="#e5813900"] ;
17 -> 19 ;
20 [label=<gini = 0.0<br/>samples = 1<br/>value = [1, 0]<br/>class = L>, fillcolor="#e58139ff"] ;
19 -> 20 ;
21 [label=<Game_Location &le; 1.5<br/>gini = 0.49<br/>samples = 7<br/>value = [3, 4]<br/>class = W>, fillcolor="#399de540"] ;
19 -> 21 ;
22 [label=<gini = 0.0<br/>samples = 1<br/>value = [0, 1]<br/>class = W>, fillcolor="#399de5ff"] ;
21 -> 22 ;
23 [label=<Training_Impulse &le; 410.0<br/>gini = 0.5<br/>samples = 6<br/>value = [3, 3]<br/>class = L>, fillcolor="#e5813900"] ;
21 -> 23 ;
24 [label=<gini = 0.0<br/>samples = 1<br/>value = [0, 1]<br/>class = W>, fillcolor="#399de5ff"] ;
23 -> 24 ;
25 [label=<Training_Impulse &le; 477.5<br/>gini = 0.48<br/>samples = 5<br/>value = [3, 2]<br/>class = L>, fillcolor="#e5813955"] ;
23 -> 25 ;
26 [label=<gini = 0.0<br/>samples = 2<br/>value = [2, 0]<br/>class = L>, fillcolor="#e58139ff"] ;
25 -> 26 ;
27 [label=<Training_Impulse &le; 500.5<br/>gini = 0.444<br/>samples = 3<br/>value = [1, 2]<br/>class = W>, fillcolor="#399de57f"] ;
25 -> 27 ;
28 [label=<gini = 0.0<br/>samples = 1<br/>value = [0, 1]<br/>class = W>, fillcolor="#399de5ff"] ;
27 -> 28 ;
29 [label=<Training_Impulse &le; 513.5<br/>gini = 0.5<br/>samples = 2<br/>value = [1, 1]<br/>class = L>, fillcolor="#e5813900"] ;
27 -> 29 ;
30 [label=<gini = 0.0<br/>samples = 1<br/>value = [1, 0]<br/>class = L>, fillcolor="#e58139ff"] ;
29 -> 30 ;
31 [label=<gini = 0.0<br/>samples = 1<br/>value = [0, 1]<br/>class = W>, fillcolor="#399de5ff"] ;
29 -> 31 ;
32 [label=<gini = 0.0<br/>samples = 3<br/>value = [3, 0]<br/>class = L>, fillcolor="#e58139ff"] ;
14 -> 32 ;
}